// Defining Header File
#ifndef __YOLOV2_PARAMETERS_H__
#define __YOLOV2_PARAMETERS_H__

// Scaled Down Weights for the Yolov2 Tiny model is stored as array
float yolo_weights[] = {0.6471839, -0.0016290171, 0.05314042, -0.16060296, -0.032095384, 0.14459187, 0.74179786, -0.16567887, -0.1289464, -0.31324384, 0.28701404, -0.49408633, -0.5508685, 0.32394162, 0.3742325, 0.3084737, -0.2039732, -0.17045127, 0.02120819, 0.20189992, 0.30206335, -0.825903, -0.42313328, -0.043518208, 0.66295236, 0.6325843, -0.8135142, -0.6648157, -0.24882534, 0.8094732, 0.74344105, -0.20605327, -0.045332085, 0.24377704, 0.0640078, -0.18861589, 0.23629119, 0.18970892, -0.3122959, -0.056943048, 0.190263, 0.35480753, -0.6339196, -0.49914122, 0.07381863, 0.71115845, 0.43254012, -0.23646282, 0.36552033, -0.13820484, 0.24193995, 0.21885644, -0.44115677, 1.2674304, 0.3865054, 0.07166208, -0.2502269, -1.0189316, 0.81994265, 0.91027987, -0.27031323, -0.04652709, -1.0721766, -0.06224922, 0.22567919, 0.071255155, 0.07531445, -0.13694808, -0.48771545, -0.6058216, 0.21256256, 0.11584271, 0.01895833, -0.9641476, 0.687786, 0.9078991, 0.28539327, 0.040883094, -0.8210763, -0.28091672, -0.1483356, 0.2425103, -0.31335044, -0.06436488, -0.25770062, -0.71112204, 0.106722265, 0.12582178, 0.15984617, -0.668188, 0.5976484, 0.6820574, 0.19330214, 0.095882386, -0.61970073, 0.28001803, 0.4039135, -0.029582499, 0.25511307, 0.18903916, -0.59068906, 0.16721076, 0.7225644, -0.48817348, -0.013864483, 0.19274127, 1.1733841, -0.16695791, -0.33379635, 0.26792952, -1.3846678, 0.25062236, 0.1735962, -0.20184179, 0.29737484, -0.082893535, -0.5533945, -0.06802113, 0.5081354, -0.5723581, -0.114395574, 0.28535318, 1.0649734, -0.20487057, 0.26703066, 0.4611643, -1.2279458, -0.28899756, -0.11835195, 0.00019511122, -0.2042131, -0.04759747, -0.41072303, -0.17018336, 0.2783107, -0.3928635, 0.02939505, 0.3713362, 0.7754291, -0.02002018, 0.31642705, 0.29180774, -0.8914908, 0.43044618, 0.2325616, 0.23020095, 0.053974625, -0.15943818, -0.42138657, -0.35529396, 0.119132645, 0.0003903966, 0.36538744, 0.7734964, 0.7709335, -0.7520985, -0.26029912, 0.5245187, -0.8040427, 0.16622002, -0.053011302, 0.28104356, 0.13132307, 0.19101126, -0.29666907, 0.19547044, 0.07599328, 0.063758805, 0.058544893, 0.62866515, 0.5847826, -0.7939703, 0.040318284, 0.6903755, -0.63312066, -0.42530504, -0.15996198, -0.26646873, -0.21723475, -0.0028328637, -0.21562958, 0.14632408, 0.15942289, 0.24855615, -0.31321546, 0.400166, 0.47006628, -0.5756848, 0.072938085, 0.5059397, -0.50039375, 0.07203374, -0.008160786, -0.06713741, 0.2357942, 0.7215549, 0.0408302, 0.42661682, -0.12784824, -0.1538047, -0.24194583, -1.3688571, 0.018976096, 1.4550934, -0.5222025, -0.07782863, 0.036333464, -0.18004833, -0.05172213, -0.2616184, 0.12051016, -0.64963526, 0.03471455, 0.018351516, -0.1526509, -0.10561341, 0.1904071, -1.3610315, -0.0016583933, 1.4143225, 0.13165332, -0.09578462, 0.12660635, -0.34555846, 0.04954317, 0.12059269, -0.3950247, -0.11326766, 0.08590066, -0.48392093, -0.13608702, -0.12615249, 0.34377748, -1.0009089, 0.08159851, 1.0713272, 0.17755283, 0.021539826, 0.1664822, 0.4634718, -0.20168486, 0.10275871, 0.20311122, 0.78004056, 0.013440088, -0.15466799, 0.47813466, -0.08023073, -0.70576084, 0.16723347, 0.10646234, -0.5140202, -0.61650306, -0.9370414, 0.08183397, -0.21850452, -0.26617607, 0.14565061, 0.18530262, -0.66849184, 0.16288501, 0.20649457, 0.54556155, 0.032682497, -0.736297, 0.223292, 0.05388425, -0.53066987, 0.097564265, -0.9996589, 0.11991847, -0.4806359, 0.027801897, 0.56750077, -0.59851, -0.11165834, 0.09609445, -0.08626863, 0.3689856, 0.022020672, -0.10122761, 0.29920912, 0.14940096, -0.24448751, 0.28500366, -0.43281737, 0.14545588, 0.6342264, -0.287702, -0.11846584, 0.11728732, 0.16672552, 0.049664285, -0.5677907, -0.5582357, -0.12269563, 0.8824516, 1.1788224, 0.04438089, -1.0459492, -0.36572024, -1.262099, 0.12534001, 0.022768635, -0.3052207, -0.13389654, 0.24266878, -0.14497441, 0.09189619, 0.22794342, -0.45333368, -0.055528693, 0.4339737, 1.0735203, 0.012610256, -1.0219657, 0.09534056, -1.3759124, 0.15714467, -0.2358481, -0.018791962, -0.004937166, -0.3167713, -0.033076968, 0.08629971, 0.39071718, -0.24798374, -0.0653835, -0.2794861, 0.7428834, 0.045800522, -0.8208227, 0.33385268, -0.7812173, 0.11775277, 0.44485438, -0.14069927, 0.16290903, 0.073827535, 0.41609406, 0.39466158, 0.07380263, -0.20435083, 0.049451824, 0.067497835, -0.9093787, -0.91845703, 0.9840788, -0.24874659, 0.12506287, 0.9368287, 0.046915047, 0.03894902, 0.21203937, 0.046247795, -0.43719023, 0.31224155, 0.105177, -0.20234503, -0.047768567, 0.46419492, -0.7743078, -0.7934048, 0.6701768, 0.16311842, -0.034056276, 0.6644308, -0.23586944, 0.05528409, -0.14161578, -0.0830641, -0.010212238, 0.18943614, -0.17035758, -0.098062515, -0.027316192, 0.38667798, -0.71283364, -0.6580784, 0.64515436, 0.19345897, -0.07185376, 0.5884351, 0.33918822, -0.32888415, 0.1344891, 0.05720466, 0.5786749, 0.5031653, -0.30182147, -0.35416862, 0.11467152, -0.8974909, 0.37765127, -1.139847, -0.120743304, -0.5458098, 0.5747009, 1.372244, -0.33746198, -0.10274877, -0.093276575, 0.08333686, -0.5590931, 0.4760915, 0.13364138, -0.22979526, 0.091953784, -0.72487247, 0.42960846, -1.0738553, -0.12977532, 0.01800576, 0.41699067, 1.1219846, -0.5019423, 0.03523517, -0.27810007, -0.2214322, -0.044972837, 0.25981706, 0.18275307, -0.19331312, 0.10738567, -0.06716326, 0.4391765, -0.7813947, 0.010053056, 0.22146417, 0.08517676, 0.81494546, 0.4614189};

// Yolo output weights for Post Processing
float yoloout_weights[] = {-4.6243405, 0.84960103, -0.2599549, -0.77497494, -4.164954, 2.3468022, 2.4310565, 2.8735251, -0.5037936, -0.09149927, 1.0385386, -0.5798238, -1.142833, 0.06454898, -0.24900562, -0.3886128, -4.5418477, -0.27149326, 0.55217594, 2.228736, 2.6266255, -0.8682554, -6.0100565, 0.19091323, -1.3343002, 0.14348663, -0.92876816, -0.97621584, -4.5341725, 0.13001765, -5.419123, 0.44518122, -0.773263, -0.9777708, -3.4528039, 1.2587534, -2.213027, 2.429602, -0.38500854, -0.08032792, 2.426098, 0.3019848, 0.29330906, 0.5500988, 0.038952194, -0.67729616, -4.9695363, -1.4718397, -0.2917492, 1.3352497, 2.0338428, -0.45763257, -5.7043858, -0.20904753, -0.14086093, -0.27976346, -0.22631451, -0.59984565, -3.97438, 0.5724709, -1.4119892, 0.7616302, -0.67075264, -0.5854198, -3.582089, 2.5332067, 2.876822, -2.526292, -0.48034027, -0.106113866, 1.3045089, -0.9448797, -1.6333854, 0.5676803, -0.21839744, -0.5562814, -5.6190615, -0.3912425, -1.2463518, 1.760736, 1.1366075, -1.3002201, -4.862821, -0.5019809, -1.4602835, -0.69102657, -0.82349014, -2.1480203, -4.707937, -0.18863772, -5.2811117, 0.3111872, -0.877627, -1.1157461, -3.4915752, 0.5666436, -2.3862824, -3.4880993, -0.40272686, -0.17332782, 2.575323, 0.29113597, -0.27096143, 1.5025591, 0.031412654, -0.17334807, -4.985726, -0.09580569, -0.22290805, 0.16424714, 1.3588431, -0.9521086, -5.1858745, -0.6644707, -0.96648854, -1.201414, -0.077686734, -1.8301326, -4.46064, 0.7828548};

#endif
